digraph Tree {
node [shape=box, fontname="helvetica"] ;
edge [fontname="helvetica"] ;
0 [label="40.092 <= 19.396\nentropy = 0.936\nsamples = 15215\nvalue = [9861, 5354]\nclass = h"] ;
1 [label="28.7967 <= 117.809\nentropy = 0.612\nsamples = 7962\nvalue = [6760, 1202]\nclass = h"] ;
0 -> 1 [labeldistance=2.5, labelangle=45, headlabel="True"] ;
2 [label="40.092 <= 9.668\nentropy = 0.543\nsamples = 7660\nvalue = [6705, 955]\nclass = h"] ;
1 -> 2 ;
3 [label="0.1982 <= 0.239\nentropy = 0.413\nsamples = 5335\nvalue = [4892, 443]\nclass = h"] ;
2 -> 3 ;
4 [label="16.0021 <= 48.598\nentropy = 0.313\nsamples = 4255\nvalue = [4015, 240]\nclass = h"] ;
3 -> 4 ;
5 [label="entropy = 0.278\nsamples = 4158\nvalue = [3958, 200]\nclass = h"] ;
4 -> 5 ;
6 [label="entropy = 0.978\nsamples = 97\nvalue = [57, 40]\nclass = h"] ;
4 -> 6 ;
7 [label="2.6449 <= 2.58\nentropy = 0.697\nsamples = 1080\nvalue = [877, 203]\nclass = h"] ;
3 -> 7 ;
8 [label="entropy = 0.547\nsamples = 760\nvalue = [664, 96]\nclass = h"] ;
7 -> 8 ;
9 [label="entropy = 0.919\nsamples = 320\nvalue = [213, 107]\nclass = h"] ;
7 -> 9 ;
10 [label="22.011 <= -32.956\nentropy = 0.761\nsamples = 2325\nvalue = [1813, 512]\nclass = h"] ;
2 -> 10 ;
11 [label="16.0021 <= 35.536\nentropy = 0.872\nsamples = 123\nvalue = [36, 87]\nclass = g"] ;
10 -> 11 ;
12 [label="entropy = 0.976\nsamples = 88\nvalue = [36, 52]\nclass = g"] ;
11 -> 12 ;
13 [label="entropy = 0.0\nsamples = 35\nvalue = [0, 35]\nclass = g"] ;
11 -> 13 ;
14 [label="16.0021 <= 13.878\nentropy = 0.708\nsamples = 2202\nvalue = [1777, 425]\nclass = h"] ;
10 -> 14 ;
15 [label="entropy = 0.846\nsamples = 857\nvalue = [623, 234]\nclass = h"] ;
14 -> 15 ;
16 [label="entropy = 0.589\nsamples = 1345\nvalue = [1154, 191]\nclass = h"] ;
14 -> 16 ;
17 [label="22.011 <= -125.545\nentropy = 0.685\nsamples = 302\nvalue = [55.0, 247.0]\nclass = g"] ;
1 -> 17 ;
18 [label="entropy = 0.0\nsamples = 86\nvalue = [0, 86]\nclass = g"] ;
17 -> 18 ;
19 [label="40.092 <= 9.146\nentropy = 0.819\nsamples = 216\nvalue = [55.0, 161.0]\nclass = g"] ;
17 -> 19 ;
20 [label="16.0021 <= 40.002\nentropy = 0.976\nsamples = 122\nvalue = [50, 72]\nclass = g"] ;
19 -> 20 ;
21 [label="entropy = 0.973\nsamples = 67\nvalue = [40, 27]\nclass = h"] ;
20 -> 21 ;
22 [label="entropy = 0.684\nsamples = 55\nvalue = [10, 45]\nclass = g"] ;
20 -> 22 ;
23 [label="81.8828 <= 242.849\nentropy = 0.3\nsamples = 94\nvalue = [5, 89]\nclass = g"] ;
19 -> 23 ;
24 [label="entropy = 0.527\nsamples = 42\nvalue = [5, 37]\nclass = g"] ;
23 -> 24 ;
25 [label="entropy = 0.0\nsamples = 52\nvalue = [0, 52]\nclass = g"] ;
23 -> 25 ;
26 [label="28.7967 <= 46.292\nentropy = 0.985\nsamples = 7253\nvalue = [3101, 4152]\nclass = g"] ;
0 -> 26 [labeldistance=2.5, labelangle=-45, headlabel="False"] ;
27 [label="2.6449 <= 2.384\nentropy = 0.981\nsamples = 5019\nvalue = [2912, 2107]\nclass = h"] ;
26 -> 27 ;
28 [label="28.7967 <= 12.117\nentropy = 0.809\nsamples = 1755\nvalue = [1319, 436]\nclass = h"] ;
27 -> 28 ;
29 [label="entropy = 0.0\nsamples = 27\nvalue = [0, 27]\nclass = g"] ;
28 -> 29 ;
30 [label="16.0021 <= 6.079\nentropy = 0.789\nsamples = 1728\nvalue = [1319, 409]\nclass = h"] ;
28 -> 30 ;
31 [label="entropy = 0.998\nsamples = 123\nvalue = [58, 65]\nclass = g"] ;
30 -> 31 ;
32 [label="entropy = 0.75\nsamples = 1605\nvalue = [1261, 344]\nclass = h"] ;
30 -> 32 ;
33 [label="16.0021 <= 11.791\nentropy = 1.0\nsamples = 3264\nvalue = [1593, 1671]\nclass = g"] ;
27 -> 33 ;
34 [label="2.6449 <= 2.521\nentropy = 0.704\nsamples = 941\nvalue = [180, 761]\nclass = g"] ;
33 -> 34 ;
35 [label="entropy = 0.943\nsamples = 446\nvalue = [161, 285]\nclass = g"] ;
34 -> 35 ;
36 [label="entropy = 0.235\nsamples = 495\nvalue = [19, 476]\nclass = g"] ;
34 -> 36 ;
37 [label="40.092 <= 40.14\nentropy = 0.966\nsamples = 2323\nvalue = [1413, 910]\nclass = h"] ;
33 -> 37 ;
38 [label="entropy = 0.783\nsamples = 1051\nvalue = [806.0, 245.0]\nclass = h"] ;
37 -> 38 ;
39 [label="entropy = 0.998\nsamples = 1272\nvalue = [607, 665]\nclass = g"] ;
37 -> 39 ;
40 [label="16.0021 <= 42.397\nentropy = 0.418\nsamples = 2234\nvalue = [189, 2045]\nclass = g"] ;
26 -> 40 ;
41 [label="40.092 <= 31.818\nentropy = 0.564\nsamples = 1313\nvalue = [174, 1139]\nclass = g"] ;
40 -> 41 ;
42 [label="81.8828 <= 301.441\nentropy = 0.828\nsamples = 341\nvalue = [89, 252]\nclass = g"] ;
41 -> 42 ;
43 [label="entropy = 0.904\nsamples = 275\nvalue = [88, 187]\nclass = g"] ;
42 -> 43 ;
44 [label="entropy = 0.113\nsamples = 66\nvalue = [1, 65]\nclass = g"] ;
42 -> 44 ;
45 [label="2.6449 <= 2.824\nentropy = 0.428\nsamples = 972\nvalue = [85, 887]\nclass = g"] ;
41 -> 45 ;
46 [label="entropy = 0.692\nsamples = 264\nvalue = [49, 215]\nclass = g"] ;
45 -> 46 ;
47 [label="entropy = 0.29\nsamples = 708\nvalue = [36, 672]\nclass = g"] ;
45 -> 47 ;
48 [label="27.7004 <= 0.229\nentropy = 0.12\nsamples = 921\nvalue = [15, 906]\nclass = g"] ;
40 -> 48 ;
49 [label="40.092 <= 24.175\nentropy = 0.03\nsamples = 651\nvalue = [2, 649]\nclass = g"] ;
48 -> 49 ;
50 [label="entropy = 0.292\nsamples = 39\nvalue = [2, 37]\nclass = g"] ;
49 -> 50 ;
51 [label="entropy = 0.0\nsamples = 612\nvalue = [0, 612]\nclass = g"] ;
49 -> 51 ;
52 [label="40.092 <= 29.917\nentropy = 0.278\nsamples = 270\nvalue = [13, 257]\nclass = g"] ;
48 -> 52 ;
53 [label="entropy = 0.776\nsamples = 35\nvalue = [8, 27]\nclass = g"] ;
52 -> 53 ;
54 [label="entropy = 0.149\nsamples = 235\nvalue = [5, 230]\nclass = g"] ;
52 -> 54 ;
}
